// Auto-generated — paste into ESP32 firmware
// Architecture: 8->12->8->5

const float W1[] = {
  1.700399f, 1.333396f, 0.198753f, 1.078154f, -0.206143f, 0.150719f, 0.546919f, 0.190231f, -0.234737f, 0.271280f, -0.231709f, -0.232865f, 0.120981f, -0.956640f, -0.862459f, -0.281144f, -0.506416f, 0.157124f, -0.454012f, -0.706152f, 0.732824f, -0.112888f, 0.033764f, -0.712374f, -0.564901f, -0.166743f, -0.396846f, 0.268681f, -0.072060f, -0.012199f, -0.141629f, 1.209376f, -0.006749f, -0.528855f, 0.411272f, -0.610422f, 0.104432f, -0.979835f, -0.664093f, 0.098431f, 0.897332f, 0.576564f, 0.060256f, -0.039468f, -0.579137f, -0.071589f, -0.120841f, 0.627560f, -0.691049f, -1.587395f, 0.472729f, -0.041788f, 0.185717f, 0.539633f, 0.885050f, 1.139237f, -0.419609f, -0.154606f, 0.165632f, 0.487773f, -0.239587f, -0.092829f, -0.553167f, -0.598103f, 1.226605f, 1.476734f, -0.028467f, 0.720951f, 0.211506f, -0.055967f, 0.146842f, 0.798770f, -0.051796f, 0.744454f, -1.312806f, 0.385219f, 0.018941f, -0.174455f, 0.023097f, -1.019840f, -0.178172f, 0.105389f, 0.561266f, -0.311014f, -0.524016f, -0.390939f, 0.318360f, -0.004651f, -0.264880f, 0.256634f, 0.048539f, 0.484322f, -0.351027f, -0.163831f, -0.196054f, -0.731757f
};

const float b1[] = {
  -0.549175f, 0.010000f, 0.010000f, 0.579866f, 0.010000f, 0.053069f, 1.321923f, 0.010000f, -0.117145f, -0.028924f, -0.214202f, 0.010000f
};

const float W2[] = {
  0.087174f, 0.106575f, 0.002088f, -0.095588f, -0.577823f, -0.172144f, -0.097485f, -0.327528f, -0.118658f, 0.164848f, 0.772820f, 0.071271f, 0.008423f, -0.030392f, -0.783335f, -0.086211f, 0.024589f, 0.974058f, -0.208751f, 0.123106f, -0.179332f, -0.477077f, 0.424440f, 0.306975f, 0.343583f, -0.371256f, 0.572688f, -0.633730f, 0.239583f, 0.916107f, -0.448504f, -0.231190f, -0.024878f, -0.205684f, -0.639833f, 0.027991f, -1.145735f, 0.193343f, -0.375353f, 1.183376f, -0.319762f, -0.375769f, 2.311490f, -0.502498f, -0.416394f, 0.527458f, -0.631490f, 0.075376f, 0.093946f, 0.319178f, -0.504983f, -0.539084f, 0.213082f, 0.121243f, 0.076487f, 0.141437f, -0.290803f, 0.094817f, 0.110767f, -0.291633f, 2.099868f, 0.193441f, -0.486348f, 0.034068f, -0.397912f, 0.857075f, -0.489939f, -0.335042f, 1.784340f, 0.176434f, 0.283539f, 0.774362f, -0.286553f, -0.307712f, -0.363143f, -0.078146f, -0.031477f, 0.068689f, 0.737700f, 0.337696f, -0.078599f, 0.588102f, -0.092882f, 1.110504f, 0.232973f, -0.349933f, -0.437190f, 0.164885f, -0.091228f, 0.284391f, 0.026877f, -0.029732f, -0.404093f, -0.618434f, -0.188689f, 0.349623f
};

const float b2[] = {
  0.027893f, -0.163702f, -0.097989f, 1.030319f, -0.019835f, -0.174446f, 0.358984f, -0.111668f
};

const float W3[] = {
  0.119372f, -0.623129f, 0.070991f, 1.764987f, -0.440559f, -2.449275f, 0.391871f, -0.567962f, 0.187379f, 0.281022f, 0.529936f, 1.247281f, -0.689239f, -0.667136f, 0.399052f, 0.255533f, 0.242310f, 1.913981f, 0.213295f, 0.569754f, 0.476493f, 0.367321f, -0.116010f, 0.378373f, -0.373572f, -0.136107f, -0.433368f, -0.793579f, 1.157165f, 0.900938f, 0.197419f, -0.806869f, -0.254403f, 0.574188f, 0.322165f, -1.999036f, -0.357945f, 1.187964f, -0.765397f, 0.107689f
};

const float b3[] = {
  -0.348002f, 0.000419f, -0.122632f, 0.696096f, -0.175881f
};
